#pragma once
static const float CONV1_W[64][3] = {
  { -4.51503024e-02, -3.16753797e-02, 3.69738638e-02 },
  { -7.92607963e-02, -1.73184033e-02, -4.21968624e-02 },
  { 4.69740247e-03, 5.89738451e-02, 9.56833810e-02 },
  { 5.23072481e-02, -1.04718730e-01, -4.55240980e-02 },
  { 5.62770106e-02, 1.42178703e-02, -5.10887578e-02 },
  { -7.02226683e-02, -5.51130250e-02, -1.78907327e-02 },
  { 2.65945215e-02, 9.88000333e-02, 2.64732614e-02 },
  { 5.81621639e-02, -3.67902219e-02, 7.32949302e-02 },
  { -3.71960215e-02, 3.43253836e-02, -6.30375966e-02 },
  { -5.53463846e-02, 2.08364949e-02, 7.03191087e-02 },
  { -7.48242512e-02, 2.83580124e-02, 9.71076563e-02 },
  { -1.67630725e-02, -1.01048984e-01, -1.68841127e-02 },
  { 3.27972472e-02, -6.62476271e-02, -3.42460759e-02 },
  { 5.37484735e-02, 1.35975759e-02, 8.90202224e-02 },
  { 1.57521083e-03, 7.41250589e-02, 2.00248901e-02 },
  { -6.88136555e-03, 5.09476997e-02, -8.11527744e-02 },
  { 1.45775983e-02, 1.12560384e-01, -8.57020728e-03 },
  { 3.08151189e-02, 1.07130878e-01, 3.11695747e-02 },
  { -1.00260265e-01, -5.74165210e-02, -9.60597917e-02 },
  { -5.47972582e-02, -1.30318115e-02, -6.18967526e-02 },
  { 9.03869644e-02, 2.04511359e-03, 4.37088870e-02 },
  { 2.65799295e-02, 4.29127812e-02, 3.19926925e-02 },
  { -1.22172847e-01, -6.69022128e-02, -5.88011742e-02 },
  { 7.51276165e-02, 4.08032984e-02, 6.72151968e-02 },
  { -5.55142350e-02, -4.36893143e-02, -1.92399062e-02 },
  { 1.12511739e-01, 2.26750094e-02, -4.69340645e-02 },
  { 5.60584664e-02, -8.08437020e-02, -5.76586723e-02 },
  { 9.61215869e-02, 6.29973859e-02, -9.08444375e-02 },
  { -1.07660117e-02, -7.05739632e-02, -3.19152395e-03 },
  { 1.75460037e-02, -2.17185877e-02, 4.47624847e-02 },
  { -5.08546345e-02, 5.51606789e-02, -8.08006302e-02 },
  { 2.25743763e-02, -4.15034294e-02, -7.42915869e-02 },
  { 8.86100829e-02, 1.93709973e-02, -4.74345982e-02 },
  { -3.55225690e-02, 6.73597585e-03, 6.13429584e-02 },
  { 1.79847721e-02, -4.12838124e-02, -1.06611684e-01 },
  { 1.14557132e-01, -1.35540003e-02, -2.06149891e-02 },
  { 5.99223785e-02, -2.17590481e-02, 2.71347817e-02 },
  { 7.30707943e-02, -5.57064414e-02, 8.59442204e-02 },
  { 3.76419127e-02, 4.54459079e-02, -8.49910676e-02 },
  { -1.41580909e-01, -1.03779202e-02, -5.23181483e-02 },
  { 2.45211292e-02, -1.56023294e-01, -1.09211437e-01 },
  { -3.90388817e-02, 2.19010077e-02, 3.18624824e-02 },
  { 4.30924725e-03, -5.23891300e-02, 9.70318466e-02 },
  { -5.15614599e-02, 5.50446771e-02, 6.50684160e-05 },
  { -1.35793630e-02, 1.60845481e-02, 6.44762814e-02 },
  { 3.83853056e-02, -2.81290002e-02, 7.80957788e-02 },
  { -5.11653796e-02, -2.57660113e-02, 5.22472002e-02 },
  { 1.15510961e-02, 9.75810736e-02, -3.82264666e-02 },
  { 1.88153572e-02, 3.10199652e-02, -4.34162989e-02 },
  { -3.24692717e-03, -4.24369648e-02, -5.90496510e-02 },
  { 7.97894523e-02, -1.69943161e-02, -9.84913483e-02 },
  { -5.34442440e-02, 2.57366039e-02, -1.49036143e-02 },
  { -5.10316417e-02, 2.68556401e-02, 1.18886434e-01 },
  { 5.61951995e-02, -6.32578284e-02, -1.05185136e-01 },
  { -7.00860023e-02, -2.84891687e-02, 1.42781239e-03 },
  { 1.19027801e-01, 5.84545918e-03, -5.29950671e-02 },
  { -1.14352442e-02, 9.35565010e-02, 5.97301312e-02 },
  { -4.44849953e-02, 2.94053815e-02, -8.31178427e-02 },
  { 1.09126102e-02, 5.83402589e-02, 6.65415823e-02 },
  { 1.49585670e-02, -1.93483476e-02, -8.32331851e-02 },
  { -2.22022459e-02, 9.46290419e-03, -9.66787934e-02 },
  { -1.63066033e-02, 4.25253995e-02, -7.35503957e-02 },
  { 7.72649124e-02, -1.19229242e-01, -5.51832728e-02 },
  { -2.16747168e-03, -5.75857759e-02, -7.72794932e-02 },
};
